{
  "weights": [
    [
      [
        0.00477967315640389,
        0.008425153349321167,
        0.02473139182912103,
        0.0036075845715559133
      ],
      [
        0.008618542488306572,
        -0.006475031934702401,
        0.01156364604168245,
        0.004098090540614231
      ],
      [
        -0.011496752850929751,
        -0.013515247984357093,
        0.017625806024416286,
        -0.0017065039660154853
      ],
      [
        0.020413840465287256,
        -0.0015491690760670706,
        -0.0034590111874639243,
        0.027062893730309977
      ]
    ],
    [
      [
        -0.01702406565541789,
        0.01147672842974714,
        -0.00728043097827121,
        -0.019584169902121737
      ],
      [
        0.027708697392279016,
        0.01027938354241861,
        -0.008146011943559631,
        -0.010653005258281504
      ],
      [
        -0.0022602936876144905,
        0.0013223006276409616,
        -0.014266589697035398,
        0.011543268213054101
      ],
      [
        -0.005799508176385339,
        0.007015808342067359,
        0.017356783325115144,
        0.015057388994618622
      ]
    ],
    [
      [
        9.164836658368399E-4,
        6.206932560714868E-4,
        -0.03731994187652781,
        0.014174305074020076
      ],
      [
        -0.0036795252815958034,
        0.004413088165313198,
        -5.419786336029202E-4,
        -3.43070400937729E-4
      ],
      [
        -0.011071436145453792,
        -0.0017242288936116818,
        0.0173572286798866,
        0.011103546752706944
      ],
      [
        0.007864867266450375,
        -0.012502374271391694,
        0.00399212789074564,
        -0.023514378351386887
      ]
    ],
    [
      [
        -0.0693073559494787,
        -0.06210906843015168,
        -0.062028086197749605,
        -0.057116330751205466
      ],
      [
        0.006791761067975658,
        -0.001954838406789597,
        0.00803460087457311,
        -0.009391534206576478
      ],
      [
        -0.010369054759318408,
        0.002680199146992043,
        0.013196455710508419,
        0.0074708458353506275
      ],
      [
        0.021740162590182636,
        0.024808327182681732,
        -0.012337346039521743,
        0.017438822124978055
      ]
    ]
  ],
  "biases": [
    [
      -0.10098268868274794,
      0.11835524124878358,
      -0.49014990352779786,
      -0.6833097351536697
    ],
    [
      1.352197323844917,
      0.6956194005639187,
      -1.9256427087926564,
      -0.7548939101915435
    ],
    [
      1.3826434386445776,
      -0.25533988404041646,
      0.543603072358596,
      0.37590237001746607
    ],
    [
      0.3747118105577643,
      1.5050137479675194,
      1.490671640967498,
      0.26051421490245974
    ]
  ],
  "columns": 4,
  "rows": 4
}