{
  "weights": [
    [
      [
        0.009364266476148226,
        -0.0034832736250548285,
        -0.008928548963164161,
        0.004735380821805274
      ],
      [
        -0.013271498394582516,
        -0.026976038766679034,
        -0.0022465668313592993,
        -0.01269441557464419
      ],
      [
        -0.010247505057741073,
        0.02586185568220347,
        -0.00991512631930059,
        -0.009703773725589677
      ],
      [
        0.0027862416297657934,
        0.003717504480156986,
        -0.012032676220905088,
        9.153498554480327E-4
      ]
    ],
    [
      [
        -0.004053321979926151,
        0.00334366879998904,
        -0.011086154496366206,
        3.5904314676404045E-4
      ],
      [
        -0.004536889612523328,
        -0.006075607689389202,
        -0.006183118743253252,
        0.017923669935064092
      ],
      [
        0.02386938841297264,
        0.007758129756631434,
        8.48663888827809E-4,
        -0.018631739254109467
      ],
      [
        -0.013958740235774258,
        0.00952492997861188,
        -0.01939120750607943,
        0.013395001031248448
      ]
    ],
    [
      [
        -0.003180556974277695,
        0.003874177596846695,
        0.002480193364736631,
        -0.016175392363001667
      ],
      [
        -0.01736621043751524,
        0.011047579805919357,
        0.002226340565470538,
        -0.017177404152606112
      ],
      [
        0.004339008083181377,
        -0.009161513919521417,
        -0.030627839614489893,
        4.494980402399055E-4
      ],
      [
        0.006089483290466571,
        0.005717380525362416,
        0.007654404309781966,
        0.006016327411962374
      ]
    ],
    [
      [
        -0.08520769637050077,
        -0.04214486824536952,
        -0.08790167840009977,
        -0.05116370571246699
      ],
      [
        0.008367047727591257,
        -0.01163249389633585,
        -0.015717385334155006,
        0.0018546639782785197
      ],
      [
        0.004713959671255492,
        -0.012660706779232419,
        0.012012249185034999,
        -0.002317327026617604
      ],
      [
        -0.014005894978972193,
        0.007378359582396037,
        0.016000816539992514,
        0.018930677414369122
      ]
    ]
  ],
  "biases": [
    [
      1.656582576111909,
      -1.8443538584145838,
      1.8136883950076799,
      -1.0314805541933945
    ],
    [
      0.9129817234004558,
      -1.4259960820571813,
      -0.5837930678101966,
      1.2676163750317904
    ],
    [
      1.2406700721749366,
      0.4451402624857154,
      -1.4196903519558965,
      1.4266529407859336
    ],
    [
      -0.7792884736406663,
      0.4628842007301911,
      -1.7142421321145571,
      -1.3241387506338453
    ]
  ],
  "columns": 4,
  "rows": 4
}